digraph Tree {
node [shape=box, style="filled, rounded", color="black", fontname=helvetica] ;
edge [fontname=helvetica] ;
0 [label="petal width (cm) <= 1.65\ngini = 0.66\nsamples = 94\nvalue = [44, 53, 53]\nclass = versicolor", fillcolor="#39e58100"] ;
1 [label="petal length (cm) <= 2.45\ngini = 0.52\nsamples = 61\nvalue = [44, 52, 2]\nclass = versicolor", fillcolor="#39e58126"] ;
0 -> 1 [labeldistance=2.5, labelangle=45, headlabel="True"] ;
2 [label="gini = 0.0\nsamples = 29\nvalue = [44, 0, 0]\nclass = setosa", fillcolor="#e58139ff"] ;
1 -> 2 ;
3 [label="petal length (cm) <= 4.9\ngini = 0.07\nsamples = 32\nvalue = [0, 52, 2]\nclass = versicolor", fillcolor="#39e581f5"] ;
1 -> 3 ;
4 [label="gini = 0.0\nsamples = 29\nvalue = [0, 50, 0]\nclass = versicolor", fillcolor="#39e581ff"] ;
3 -> 4 ;
5 [label="sepal width (cm) <= 2.45\ngini = 0.5\nsamples = 3\nvalue = [0, 2, 2]\nclass = versicolor", fillcolor="#39e58100"] ;
3 -> 5 ;
6 [label="gini = 0.0\nsamples = 1\nvalue = [0, 0, 1]\nclass = virginica", fillcolor="#8139e5ff"] ;
5 -> 6 ;
7 [label="sepal length (cm) <= 6.15\ngini = 0.44\nsamples = 2\nvalue = [0, 2, 1]\nclass = versicolor", fillcolor="#39e5817f"] ;
5 -> 7 ;
8 [label="gini = 0.0\nsamples = 1\nvalue = [0, 2, 0]\nclass = versicolor", fillcolor="#39e581ff"] ;
7 -> 8 ;
9 [label="gini = 0.0\nsamples = 1\nvalue = [0, 0, 1]\nclass = virginica", fillcolor="#8139e5ff"] ;
7 -> 9 ;
10 [label="petal length (cm) <= 4.85\ngini = 0.04\nsamples = 33\nvalue = [0, 1, 51]\nclass = virginica", fillcolor="#8139e5fa"] ;
0 -> 10 [labeldistance=2.5, labelangle=-45, headlabel="False"] ;
11 [label="sepal width (cm) <= 3.0\ngini = 0.38\nsamples = 3\nvalue = [0, 1, 3]\nclass = virginica", fillcolor="#8139e5aa"] ;
10 -> 11 ;
12 [label="gini = 0.0\nsamples = 2\nvalue = [0, 0, 3]\nclass = virginica", fillcolor="#8139e5ff"] ;
11 -> 12 ;
13 [label="gini = 0.0\nsamples = 1\nvalue = [0, 1, 0]\nclass = versicolor", fillcolor="#39e581ff"] ;
11 -> 13 ;
14 [label="gini = 0.0\nsamples = 30\nvalue = [0, 0, 48]\nclass = virginica", fillcolor="#8139e5ff"] ;
10 -> 14 ;
}